,0,1,2,3,4,5,6,7,8,9,10,11,12,13,14
Prior_based_cluster1,-0.11972218,0.24821654,-0.038603928,-0.12877251,-0.31452468,-0.5274088,-0.036488265,-0.20399459,0.06593146,0.13029556,0.19154473,-0.08118559,0.2725955,-0.11355508,0.13305579
Striated Muscle Contraction,-0.10362372,0.02288554,0.12412184,-0.28226832,0.01609934,-0.2020044,-0.008550377,-0.34650502,0.13630572,0.11645018,0.4985571,-0.10089484,0.14945662,0.19092914,0.37064996
"GPCRs, Class B Secretin-like",-0.05311447,0.07454296,-0.18988116,-0.090865895,-0.19305186,-0.0065159965,-0.19039266,-0.26198727,0.062318612,-0.11179572,0.20038384,0.011235851,0.31714788,0.20160854,0.06577497
Diurnally regulated genes with circadian orthologs,-0.0031123043,0.094348416,-0.040202223,-0.032380123,-0.033784635,-0.022866927,-0.00578073,-0.11211421,-0.09751835,0.027907342,0.09905635,-0.19110993,0.038638614,0.11073555,0.052597534
Vascular smooth muscle contraction,-0.11793919,0.1331157,0.0101014115,0.069104515,-0.30681735,0.011597732,-0.13497631,-0.33299387,-0.031835206,-0.24112684,0.116049685,-0.022066059,0.16041145,0.14842933,0.0703886
Prior_based_cluster2,0.046820384,0.05313646,-0.2420121,0.29134187,-0.050079327,0.23808166,-0.019129455,0.25464377,-0.18384536,-0.08889638,-0.4327972,-0.011551324,-0.25164947,-0.21997993,-0.4185136
ABC transporters,0.052994903,0.018678578,-0.23858775,0.22069938,-0.16597708,0.06522918,0.08033572,0.22410995,-0.33505702,-0.042557184,-0.2386614,-0.06971874,-0.1216944,-0.2731392,-0.2802885
Metabolic pathways,0.0026322233,0.048758674,-0.11098044,0.14134307,-0.01415,0.046950914,-0.014062335,-0.0036359336,0.042097464,0.014615772,-0.121741824,0.014240494,-0.08212812,-0.15402311,-0.096443415
Protein export,0.14122549,-0.1878602,-0.19236425,0.22068776,0.24051785,0.30396414,0.16989733,0.1967052,-0.2772094,-0.14808093,-0.31506342,-0.08228799,-0.18288106,-0.04223094,-0.29314816
Peroxisome,-0.02893311,0.07566513,-0.17927961,0.077112496,0.057840873,0.029103097,0.03861132,0.09582261,-0.046221524,0.097505145,-0.2523419,-0.08006571,-0.09643046,-0.30188677,-0.2840724
Prior_based_cluster3,-0.06957159,0.07142098,0.19724031,-0.21700631,-0.04084007,-0.29740965,-0.08010205,-0.24159597,0.30637774,0.14929691,0.40392157,0.060993,0.2550483,0.101017416,0.36479783
Complement and coagulation cascades,0.0790489,-0.16820993,0.33083478,-0.02704678,0.24733008,0.062051512,-0.03889572,-0.10572523,0.41676867,0.1287192,0.34343475,0.12605138,0.23924384,0.21610026,0.34264132
"Complement Activation, Classical Pathway",0.05813324,-0.22817007,0.40049094,-0.005631428,0.25566456,0.07411876,0.037058927,-0.07466464,0.4182368,0.099123195,0.3754488,0.13728866,0.18797629,0.29492012,0.36538172
Blood Clotting Cascade,0.112218186,-0.14410277,0.30515453,-0.033292547,0.2950832,0.043853123,-0.07404604,-0.10236295,0.40718865,0.14133292,0.29275236,0.15178944,0.27522826,0.16159876,0.3432368
Prior_based_cluster4,0.08423202,-0.17257677,-0.009646065,0.19413593,0.25966516,0.5681997,0.015465465,0.24043691,-0.0508416,-0.11643523,-0.22173195,0.096585326,-0.36489567,0.055206273,-0.21870056
Protein processing in endoplasmic reticulum,0.13850452,-0.16671547,-0.1529317,0.021276807,0.15232332,0.25195786,0.020138891,0.15555058,-0.2283576,-0.10102224,-0.24862823,0.031062873,-0.047893833,0.018331748,-0.091470234
Antigen processing and presentation,-0.00069367967,-0.16562484,-0.084415026,0.032456912,0.277726,0.5403188,0.271539,0.08095423,-0.21361855,-0.14432652,-0.13170794,0.10231198,-0.28597957,0.044524934,-0.02664842
Primary immunodeficiency,0.09950189,-0.11349939,-0.08505158,0.0020229246,0.1990541,0.48475716,0.16918369,0.04549013,-0.06620048,-0.120507896,-0.1087728,0.033838294,-0.19104941,0.17401874,-0.0076866886
Prior_based_cluster5,0.106208205,-0.07589783,0.216367,0.29994202,0.1099843,0.26481214,-0.10540174,-0.011173155,0.5179271,0.052329913,0.1571993,0.22835475,0.094528705,0.029993279,0.116522744
purine nucleotides <i>de novo</i> biosynthesis II,0.042657655,0.13642167,-0.15904161,0.26395723,0.13730165,0.14424494,-0.29792318,-0.44282097,0.30005231,-0.061528947,-0.007725342,0.24762027,-0.3202421,-0.170328,0.08115986
adenosine nucleotides degradation II,0.13640566,0.07381767,-0.1536405,0.34929067,-0.051744703,0.17494904,-0.33354554,-0.56421953,0.33898842,0.123188384,-0.106868,0.24757585,-0.32916257,-0.10602056,0.15299228
purine nucleotides degradation II (aerobic),0.1148806,0.07857917,-0.16850221,0.35817108,-0.060303766,0.15726198,-0.34911236,-0.56615204,0.32959884,0.11188919,-0.10304293,0.25009498,-0.32861736,-0.09922315,0.1470535
urate biosynthesis/inosine 5'-phosphate degradation,0.106386825,0.08079395,-0.17394473,0.36592284,-0.0648051,0.15402874,-0.35231355,-0.55344224,0.32112157,0.122253396,-0.11336923,0.25010645,-0.34022358,-0.10715309,0.13436638
Prior_based_cluster6,0.04983245,-0.07607776,-0.09522961,0.023367088,-0.05282109,0.024310647,0.22785218,0.265471,-0.53434455,-0.1839943,-0.29506353,-0.16775852,-0.21477664,-0.10216586,-0.20947346
Cholesterol Biosynthesis,0.16020466,-0.21880336,-0.11498259,0.13948683,-0.02633574,0.026957309,0.10187955,0.17216936,-0.21573515,-0.11822285,-0.38849565,-0.1411476,-0.17402972,-0.40436825,-0.4037684
Prior_based_cluster7,-0.07207975,0.26526982,-0.32926142,0.04405055,-0.31254864,-0.2765326,-0.1112232,0.002693253,-0.22756903,-0.00047685317,-0.29510823,-0.13716063,0.037243925,-0.32114556,-0.31260705
Bile secretion,-0.027974093,0.007336822,-0.23561059,0.2065203,-0.13018985,0.14265792,-0.13010295,-0.014103624,-0.06377364,-0.037309367,-0.09914589,-0.010422111,-0.010294226,-0.12524036,-0.12693608
Prior_based_cluster8,-0.042327702,-0.14296643,0.26807597,-0.2950313,0.09585935,-0.105441175,0.0744884,-0.20915776,0.052973356,0.019228432,0.36911723,0.012018762,0.130185,0.29787743,0.39424282
Prion diseases,0.097148985,-0.057147477,0.10788742,-0.18964662,0.16224086,0.040139716,0.059225664,-0.1404523,0.10589388,0.008707171,0.17787682,0.017715966,0.18322197,0.22874072,0.21160802
Matrix Metalloproteinases,0.13861527,-0.19610466,0.3133178,-0.1744048,0.25981092,0.033671524,0.06834142,-0.06876098,0.24313435,0.066760994,0.29968894,0.040609647,0.1730389,0.13928789,0.30770937
Hypertrophic cardiomyopathy (HCM),0.09192934,-0.20524886,0.11629185,-0.110478975,0.13267018,-0.073079884,0.17237939,-0.19102915,-0.013110274,0.019159056,0.19225758,0.0147185875,0.052929167,0.23093167,0.18705717
Prior_based_cluster9,0.108525485,-0.3374814,0.26820296,-0.0130214505,0.3452612,0.3839569,0.035566594,0.06335283,0.04356115,-0.1476753,0.041779935,0.16515759,-0.16714637,0.25306472,0.06870124
Osteoclast differentiation,0.14341184,-0.08717851,0.07152569,-0.15726298,0.13782902,0.39157322,0.045887258,0.032350548,-0.05931858,-0.15002562,-0.025044657,-0.004688937,0.012543889,0.2931459,0.064484425
Proteasome,-0.0031935915,-0.26642963,0.06562242,-0.06903099,0.2835365,0.3708636,0.17208469,0.054872647,-0.01299636,-0.16012752,0.02030024,0.38986698,-0.20962161,0.11428184,-0.09002135
Cell cycle,0.1575551,-0.06255523,0.10289003,-0.3058205,0.34951508,0.14742373,-0.17999631,0.030483846,-0.2943666,-0.07911729,-0.20860204,0.0042304443,-0.16634586,0.077733286,-0.022823505
Ubiquitin mediated proteolysis,0.13946915,-0.03694955,0.020645326,-0.32248423,0.2102446,0.24730104,-0.04074409,0.014325178,-0.14633363,-0.13004786,-0.15069836,-0.015490538,-0.13221063,0.11737944,-0.12734637
Prior_based_cluster10,0.15722057,-0.20695268,0.35257035,0.24965209,-0.060298003,-0.14245939,0.37375724,0.040289756,0.15345241,-0.0516596,0.11883615,0.073974036,0.07994256,0.025032792,0.14966331
ECM-receptor interaction,0.09044944,-0.30663517,0.18218066,-0.016400035,0.17443703,-0.29003644,0.3840429,-0.26159266,0.13162267,0.023583205,0.36090824,0.003361146,0.19514497,0.025537226,0.2715646
phosphatidylglycerol biosynthesis II (non-plastidic),0.116636634,-0.17808817,0.2896142,0.13644655,-0.41614679,0.00015850944,0.043891795,-0.17252618,0.035560224,-0.023608867,-0.30980518,-0.4070126,0.1503767,-0.06359753,-0.56247586
CDP-diacylglycerol biosynthesis I,0.11922169,-0.1842694,0.29847088,0.13693732,-0.4142381,-0.0020325314,0.04429407,-0.16970612,0.041349713,-0.0069403537,-0.30570516,-0.41087082,0.14575174,-0.07260193,-0.5643363
triacylglycerol biosynthesis,0.13462093,-0.19506004,0.2734627,0.10532523,-0.39412075,-0.030975018,0.03059849,-0.16154967,0.071248606,0.052007098,-0.31051323,-0.4311223,0.111392684,-0.08111319,-0.5705132
